2 300
Sentence 0.1271 0.0356 -0.0134 -0.0100 0.1353 0.0263 -0.0597 0.0231 0.0074 -0.0126 0.0209 -0.0309 0.2831 -0.0016 -0.0338 0.1002 0.0494 -0.0874 -0.0929 -0.0134 -0.1597 -0.0016 0.0273 0.0035 -0.1760 -0.0756 -0.0853 0.0095 0.0008 -0.0660 0.1774 0.0660 -0.0071 -0.0210 0.0229 -0.0173 -0.0379 -0.0682 0.0198 0.0254 -0.0108 -0.0778 -0.0094 0.0625 -0.0221 0.0631 0.0354 -0.0296 0.0617 0.0314 0.1582 0.1129 0.0281 0.0021 0.4368 -0.1094 0.0555 -0.0240 -0.1006 -0.0608 -0.0936 0.0184 -0.0265 0.0042 -0.1166 -0.0007 -0.0332 -0.0832 0.0454 -0.0446 -0.0499 -0.0852 -0.0684 -0.0598 -0.0065 -0.0321 0.0578 -0.0149 -0.0353 0.0319 0.0691 0.0843 0.8444 0.0066 -0.0465 -0.0164 0.0589 0.0603 -0.0589 -0.0497 -0.0184 0.0095 -0.1072 0.0254 -0.0094 -0.0271 0.0378 0.0048 -0.0015 -0.1009 -0.0182 -0.0513 0.0573 -0.0002 0.0518 -0.0759 0.0564 -0.0137 -0.0261 0.0656 0.0061 -0.0295 -0.0349 -0.1159 -0.0101 -0.0236 -0.0483 0.0343 0.0057 -0.1205 -0.0833 0.0393 0.0236 0.0129 -0.0899 -0.0360 -0.0380 -0.0386 0.0778 -0.0329 -0.0757 0.0701 -0.0246 -0.3195 -0.1065 -0.0229 0.2152 0.0918 -0.0843 -0.0342 -0.0281 0.0780 -0.0004 0.1064 0.1484 0.0727 -0.0202 -0.0514 -0.0393 0.0165 -0.0911 -0.0117 0.0395 -0.1155 -0.2148 -0.0061 0.0328 -0.0558 -0.1027 0.0284 -0.0193 -0.0006 -0.0815 0.0062 0.0224 0.0079 -0.1508 -0.2233 0.0603 -0.0200 0.0484 -0.0298 0.2781 0.0728 -0.0166 -0.0532 -0.1248 0.1290 -0.0349 0.0578 -0.0680 -0.0327 0.1507 -0.0220 -0.0769 -0.1918 0.0003 0.0308 -0.0105 0.0436 0.0709 -0.0622 0.0654 0.1635 -0.0525 0.0198 0.0719 0.0586 0.0509 -0.0101 -0.2630 0.0578 0.0433 -0.0168 0.1403 -0.0320 0.0609 0.0251 -0.0038 -0.0138 -0.0424 0.0864 -0.1150 -0.0703 -0.1763 0.0424 0.0629 -0.0049 -0.3170 0.1916 -0.0464 0.0751 0.0237 0.0864 -0.1301 0.0279 -0.2121 -0.0120 0.1025 0.0207 -0.0091 -0.0104 0.0493 -0.0151 -0.0463 -0.0199 0.0247 0.0271 0.0203 0.0210 0.0967 0.0239 0.0313 0.0170 -0.1281 0.0023 -0.0771 -0.0273 -0.0128 -0.0623 0.0169 0.0569 0.0365 0.0747 -0.0060 0.0538 0.0408 -0.0028 -0.0357 0.0390 0.0170 -0.1010 -0.0654 -0.0552 0.0706 -0.0406 0.0005 -0.0368 -0.0214 -0.0939 -0.0396 0.0535 0.0406 -0.0293 0.0240 0.0699 -0.0381 -0.0011 -0.0323 0.0977 -0.0687 0.1055 0.0692 -0.0002 -0.0174 -0.1106 0.0914 -0.0234 0.2364 0.0245 -0.0698 0.1212 0.0032 -0.0884 -0.1106 -0.0209 0.0748 -0.0175 -0.0111 0.0092
. -0.1028 0.0208 -0.0235 0.0794 0.0284 0.0097 0.0328 -0.0054 -0.0338 -0.0541 -0.0293 -0.0616 0.3285 -0.1766 0.0214 0.3172 0.1139 0.0546 0.0106 -0.0492 0.1317 0.0441 -0.0442 -0.0822 -0.2058 -0.3436 0.0357 0.0860 0.0631 -0.0236 0.0253 0.1204 -0.0011 0.0833 0.0457 0.0463 -0.0049 -0.0002 0.0356 -0.0221 -0.0241 0.1429 -0.0498 0.1081 -0.0569 0.1883 -0.0259 0.0110 0.0795 0.0906 0.0159 -0.1774 0.0466 0.1067 0.4010 0.0221 0.0473 0.0630 -0.0191 0.0152 -0.0745 0.0615 -0.0565 0.0168 0.0042 -0.0890 -0.0333 0.0493 -0.0694 0.0076 -0.1073 0.0070 0.0190 -0.0456 -0.1193 0.0096 -0.0013 -0.0110 -0.0602 0.0485 -0.0192 0.1404 1.0454 -0.0198 0.1328 0.0495 -0.0621 -0.0135 -0.0507 -0.0276 0.0010 0.0499 0.1893 -0.0062 0.0283 -0.0601 0.0179 0.0620 0.0073 -0.0410 -0.0922 -0.0439 -0.0612 0.0197 0.0297 0.0109 0.0535 0.0724 -0.0540 0.0939 0.0062 -0.0886 -0.0044 -0.0572 -0.0058 -0.0100 -0.0138 0.0796 -0.0190 0.0539 0.1392 0.2092 -0.0483 0.0948 0.0293 -0.1015 -0.0377 -0.0052 -0.1322 0.0353 -0.0000 0.0968 -0.0553 -0.1574 -0.2598 -0.0186 0.2303 -0.0370 0.0001 -0.0023 0.0240 0.0100 -0.0249 0.2826 -0.1605 -0.0762 -0.0917 -0.0243 -0.0795 -0.0109 -0.0247 -0.1053 0.1111 -0.0671 -0.2930 0.0796 0.0465 -0.0236 0.0477 0.0900 -0.0841 -0.0175 -0.0492 -0.0029 0.0029 -0.0543 0.3960 -0.0695 0.0380 0.0090 0.0191 -0.0685 0.3998 -0.2886 -0.0274 -0.0080 -0.0081 0.6646 -0.0150 -0.0635 -0.0385 -0.0017 0.0057 -0.0346 0.0091 -0.5501 0.0295 -0.0726 0.0424 -0.0347 0.0247 -0.0223 -0.0820 0.5079 0.0582 0.0771 0.0283 0.0328 0.0002 -0.0144 0.2214 0.0470 0.0793 0.0079 -0.0763 0.0095 -0.0511 -0.0454 -0.0095 0.0097 -0.0196 0.1779 0.0348 0.0653 0.0193 0.0236 0.0269 -0.0042 -0.0604 -0.1879 0.0400 0.0415 0.0368 -0.0349 0.1267 0.0685 0.2566 -0.3385 0.0788 -0.0458 0.0736 0.3825 0.0496 0.0342 0.0906 -0.0084 -0.0540 0.0018 -0.0042 0.0416 0.0251 -0.0075 0.0347 -0.0899 -0.0071 0.0186 0.0034 -0.0192 -0.0017 -0.1191 0.0037 -0.0363 0.0364 0.0664 -0.2065 -0.1264 0.0571 -0.0173 -0.1454 -0.0173 0.0830 -0.0438 0.0029 0.1918 0.2079 0.0393 0.0081 0.0228 -0.0086 -0.1322 -0.0006 0.1892 0.0536 0.0155 -0.0371 -0.0056 0.0188 0.0864 -0.1048 0.2564 -0.1761 0.0433 0.0597 -0.0005 0.0409 -0.0803 0.0188 0.0211 -0.0255 -0.0026 -0.0438 -0.2800 -0.0682 -0.0544 -0.0386 -0.0479 0.1007 0.0435 0.0229 0.0632

